digraph Tree {
node [shape=box] ;
0 [label="X[3] <= 0.8\ngini = 0.665\nsamples = 120\nvalue = [39, 37, 44]"] ;
1 [label="gini = 0.0\nsamples = 39\nvalue = [39, 0, 0]"] ;
0 -> 1 [labeldistance=2.5, labelangle=45, headlabel="True"] ;
2 [label="X[3] <= 1.65\ngini = 0.496\nsamples = 81\nvalue = [0, 37, 44]"] ;
0 -> 2 [labeldistance=2.5, labelangle=-45, headlabel="False"] ;
3 [label="X[2] <= 4.95\ngini = 0.18\nsamples = 40\nvalue = [0, 36, 4]"] ;
2 -> 3 ;
4 [label="gini = 0.0\nsamples = 35\nvalue = [0, 35, 0]"] ;
3 -> 4 ;
5 [label="gini = 0.32\nsamples = 5\nvalue = [0, 1, 4]"] ;
3 -> 5 ;
6 [label="X[2] <= 4.85\ngini = 0.048\nsamples = 41\nvalue = [0, 1, 40]"] ;
2 -> 6 ;
7 [label="gini = 0.375\nsamples = 4\nvalue = [0, 1, 3]"] ;
6 -> 7 ;
8 [label="gini = 0.0\nsamples = 37\nvalue = [0, 0, 37]"] ;
6 -> 8 ;
}